<?xml version="1.0"?>
<opencv_storage>
<cascade>
  <stageType>BOOST</stageType>
  <featureType>HAAR</featureType>
  <height>24</height>
  <width>24</width>
  <stageParams>
    <boostType>GAB</boostType>
    <minHitRate>9.9900001287460327e-01</minHitRate>
    <maxFalseAlarm>2.0000000298023224e-01</maxFalseAlarm>
    <weightTrimRate>9.4999999999999996e-01</weightTrimRate>
    <maxDepth>1</maxDepth>
    <maxWeakCount>100</maxWeakCount></stageParams>
  <featureParams>
    <maxCatCount>0</maxCatCount>
    <featSize>1</featSize>
    <mode>BASIC</mode></featureParams>
  <stageNum>10</stageNum>
  <stages>
    <!-- stage 0 -->
    <_>
      <maxWeakCount>3</maxWeakCount>
      <stageThreshold>-8.3215087652206421e-01</stageThreshold>
      <weakClassifiers>
        <_>
          <internalNodes>
            0 -1 62 -5.6055013090372086e-02</internalNodes>
          <leafValues>
            7.6811593770980835e-01 -8.6407768726348877e-01</leafValues></_>
        <_>
          <internalNodes>
            0 -1 34 -4.9856439232826233e-02</internalNodes>
          <leafValues>
            -8.6210566759109497e-01 6.9891595840454102e-01</leafValues></_>
        <_>
          <internalNodes>
            0 -1 26 -3.7682574242353439e-02</internalNodes>
          <leafValues>
            8.9403247833251953e-01 -5.9144538640975952e-01</leafValues></_></weakClassifiers></_>
    <!-- stage 1 -->
    <_>
      <maxWeakCount>6</maxWeakCount>
      <stageThreshold>-7.4386286735534668e-01</stageThreshold>
      <weakClassifiers>
        <_>
          <internalNodes>
            0 -1 54 -5.2829995751380920e-02</internalNodes>
          <leafValues>
            5.2095806598663330e-01 -8.7989556789398193e-01</leafValues></_>
        <_>
          <internalNodes>
            0 -1 9 3.9976261556148529e-02</internalNodes>
          <leafValues>
            -7.7416759729385376e-01 3.9339897036552429e-01</leafValues></_>
        <_>
          <internalNodes>
            0 -1 63 1.2367147952318192e-02</internalNodes>
          <leafValues>
            -5.9919726848602295e-01 6.6739183664321899e-01</leafValues></_>
        <_>
          <internalNodes>
            0 -1 67 5.2240967750549316e-02</internalNodes>
          <leafValues>
            -5.4457068443298340e-01 6.9883483648300171e-01</leafValues></_>
        <_>
          <internalNodes>
            0 -1 31 2.4872308131307364e-04</internalNodes>
          <leafValues>
            -8.3199459314346313e-01 4.2886775732040405e-01</leafValues></_>
        <_>
          <internalNodes>
            0 -1 70 -3.0457656830549240e-02</internalNodes>
          <leafValues>
            -7.3243111371994019e-01 4.5753392577171326e-01</leafValues></_></weakClassifiers></_>
    <!-- stage 2 -->
    <_>
      <maxWeakCount>6</maxWeakCount>
      <stageThreshold>-8.3844906091690063e-01</stageThreshold>
      <weakClassifiers>
        <_>
          <internalNodes>
            0 -1 16 1.4288672246038914e-02</internalNodes>
          <leafValues>
            -7.9310345649719238e-01 5.0000000000000000e-01</leafValues></_>
        <_>
          <internalNodes>
            0 -1 30 -2.9197311028838158e-02</internalNodes>
          <leafValues>
            -8.8146823644638062e-01 3.0056530237197876e-01</leafValues></_>
        <_>
          <internalNodes>
            0 -1 36 2.2646198049187660e-02</internalNodes>
          <leafValues>
            -5.8700251579284668e-01 5.5830186605453491e-01</leafValues></_>
        <_>
          <internalNodes>
            0 -1 38 -1.8697108607739210e-03</internalNodes>
          <leafValues>
            3.7734678387641907e-01 -8.0196446180343628e-01</leafValues></_>
        <_>
          <internalNodes>
            0 -1 55 -2.6071593165397644e-03</internalNodes>
          <leafValues>
            -1. 3.1225058436393738e-01</leafValues></_>
        <_>
          <internalNodes>
            0 -1 25 -3.8914725184440613e-02</internalNodes>
          <leafValues>
            8.1593769788742065e-01 -4.1449892520904541e-01</leafValues></_></weakClassifiers></_>
    <!-- stage 3 -->
    <_>
      <maxWeakCount>9</maxWeakCount>
      <stageThreshold>-1.4607968330383301e+00</stageThreshold>
      <weakClassifiers>
        <_>
          <internalNodes>
            0 -1 27 3.3762209117412567e-02</internalNodes>
          <leafValues>
            -7.6039117574691772e-01 4.3262410163879395e-01</leafValues></_>
        <_>
          <internalNodes>
            0 -1 32 -1.8121110275387764e-02</internalNodes>
          <leafValues>
            6.8926662206649780e-01 -5.1553303003311157e-01</leafValues></_>
        <_>
          <internalNodes>
            0 -1 78 -2.2771642543375492e-03</internalNodes>
          <leafValues>
            4.9325075745582581e-01 -5.6612396240234375e-01</leafValues></_>
        <_>
          <internalNodes>
            0 -1 43 -6.3816510140895844e-02</internalNodes>
          <leafValues>
            -7.1662014722824097e-01 3.9777526259422302e-01</leafValues></_>
        <_>
          <internalNodes>
            0 -1 35 -5.2959490567445755e-03</internalNodes>
          <leafValues>
            -8.8377755880355835e-01 3.0502194166183472e-01</leafValues></_>
        <_>
          <internalNodes>
            0 -1 76 2.1127907559275627e-02</internalNodes>
          <leafValues>
            -4.0418878197669983e-01 7.8586453199386597e-01</leafValues></_>
        <_>
          <internalNodes>
            0 -1 2 2.6913469657301903e-02</internalNodes>
          <leafValues>
            -4.9957954883575439e-01 6.1910235881805420e-01</leafValues></_>
        <_>
          <internalNodes>
            0 -1 50 -2.2410496603697538e-04</internalNodes>
          <leafValues>
            3.4401246905326843e-01 -8.8547933101654053e-01</leafValues></_>
        <_>
          <internalNodes>
            0 -1 41 -4.6448264038190246e-04</internalNodes>
          <leafValues>
            -8.4409296512603760e-01 2.3820996284484863e-01</leafValues></_></weakClassifiers></_>
    <!-- stage 4 -->
    <_>
      <maxWeakCount>7</maxWeakCount>
      <stageThreshold>-8.4889912605285645e-01</stageThreshold>
      <weakClassifiers>
        <_>
          <internalNodes>
            0 -1 68 -1.5807058662176132e-02</internalNodes>
          <leafValues>
            4.3548387289047241e-01 -7.1361500024795532e-01</leafValues></_>
        <_>
          <internalNodes>
            0 -1 37 1.1647399514913559e-02</internalNodes>
          <leafValues>
            -5.5243581533432007e-01 4.7412613034248352e-01</leafValues></_>
        <_>
          <internalNodes>
            0 -1 8 -5.7950258255004883e-02</internalNodes>
          <leafValues>
            9.1999661922454834e-01 -2.7860945463180542e-01</leafValues></_>
        <_>
          <internalNodes>
            0 -1 42 2.7940510772168636e-03</internalNodes>
          <leafValues>
            3.0708360671997070e-01 -8.2928574085235596e-01</leafValues></_>
        <_>
          <internalNodes>
            0 -1 56 6.1383942374959588e-04</internalNodes>
          <leafValues>
            2.2292318940162659e-01 -9.5156317949295044e-01</leafValues></_>
        <_>
          <internalNodes>
            0 -1 73 -3.1086307018995285e-02</internalNodes>
          <leafValues>
            5.7300806045532227e-01 -4.1533163189888000e-01</leafValues></_>
        <_>
          <internalNodes>
            0 -1 77 -9.7984317690134048e-03</internalNodes>
          <leafValues>
            6.9089341163635254e-01 -4.0522876381874084e-01</leafValues></_></weakClassifiers></_>
    <!-- stage 5 -->
    <_>
      <maxWeakCount>11</maxWeakCount>
      <stageThreshold>-1.1088167428970337e+00</stageThreshold>
      <weakClassifiers>
        <_>
          <internalNodes>
            0 -1 3 7.4803635478019714e-02</internalNodes>
          <leafValues>
            -6.7483294010162354e-01 5.2475249767303467e-01</leafValues></_>
        <_>
          <internalNodes>
            0 -1 48 7.5311213731765747e-04</internalNodes>
          <leafValues>
            2.5029283761978149e-01 -7.8134548664093018e-01</leafValues></_>
        <_>
          <internalNodes>
            0 -1 39 -8.9516602456569672e-02</internalNodes>
          <leafValues>
            5.0768870115280151e-01 -4.6951812505722046e-01</leafValues></_>
        <_>
          <internalNodes>
            0 -1 58 -2.1213649597484618e-04</internalNodes>
          <leafValues>
            -8.7323296070098877e-01 2.4429062008857727e-01</leafValues></_>
        <_>
          <internalNodes>
            0 -1 74 6.5880245529115200e-03</internalNodes>
          <leafValues>
            -3.8673582673072815e-01 5.5230075120925903e-01</leafValues></_>
        <_>
          <internalNodes>
            0 -1 80 2.3108264431357384e-02</internalNodes>
          <leafValues>
            -2.7803876996040344e-01 7.5693804025650024e-01</leafValues></_>
        <_>
          <internalNodes>
            0 -1 21 -2.0312650594860315e-03</internalNodes>
          <leafValues>
            -8.2408428192138672e-01 2.8320702910423279e-01</leafValues></_>
        <_>
          <internalNodes>
            0 -1 11 3.6906417459249496e-02</internalNodes>
          <leafValues>
            2.3098327219486237e-01 -7.9565316438674927e-01</leafValues></_>
        <_>
          <internalNodes>
            0 -1 0 -5.1605813205242157e-02</internalNodes>
          <leafValues>
            -7.9477852582931519e-01 2.3335370421409607e-01</leafValues></_>
        <_>
          <internalNodes>
            0 -1 49 -1.3180472706153523e-05</internalNodes>
          <leafValues>
            4.1339874267578125e-01 -5.3391057252883911e-01</leafValues></_>
        <_>
          <internalNodes>
            0 -1 64 -6.8164465483278036e-04</internalNodes>
          <leafValues>
            -7.9901438951492310e-01 2.4990615248680115e-01</leafValues></_></weakClassifiers></_>
    <!-- stage 6 -->
    <_>
      <maxWeakCount>10</maxWeakCount>
      <stageThreshold>-9.4462823867797852e-01</stageThreshold>
      <weakClassifiers>
        <_>
          <internalNodes>
            0 -1 69 -4.1199633851647377e-03</internalNodes>
          <leafValues>
            2.7516779303550720e-01 -7.2568577527999878e-01</leafValues></_>
        <_>
          <internalNodes>
            0 -1 52 -4.7877456992864609e-02</internalNodes>
          <leafValues>
            2.4267739057540894e-01 -6.6089946031570435e-01</leafValues></_>
        <_>
          <internalNodes>
            0 -1 24 -6.7734778858721256e-03</internalNodes>
          <leafValues>
            2.9151195287704468e-01 -5.7922393083572388e-01</leafValues></_>
        <_>
          <internalNodes>
            0 -1 59 -2.8152939677238464e-01</internalNodes>
          <leafValues>
            -9.7587716579437256e-01 2.9621288180351257e-01</leafValues></_>
        <_>
          <internalNodes>
            0 -1 1 1.5158825553953648e-02</internalNodes>
          <leafValues>
            -4.0859353542327881e-01 4.9222818017005920e-01</leafValues></_>
        <_>
          <internalNodes>
            0 -1 17 3.7070985883474350e-02</internalNodes>
          <leafValues>
            2.4149152636528015e-01 -7.8825545310974121e-01</leafValues></_>
        <_>
          <internalNodes>
            0 -1 20 -8.7857684120535851e-03</internalNodes>
          <leafValues>
            -7.7288633584976196e-01 2.5835546851158142e-01</leafValues></_>
        <_>
          <internalNodes>
            0 -1 18 4.3737813830375671e-03</internalNodes>
          <leafValues>
            -3.3743825554847717e-01 7.0377123355865479e-01</leafValues></_>
        <_>
          <internalNodes>
            0 -1 10 -2.4077361449599266e-03</internalNodes>
          <leafValues>
            6.3782984018325806e-01 -3.4682890772819519e-01</leafValues></_>
        <_>
          <internalNodes>
            0 -1 47 3.5388884134590626e-03</internalNodes>
          <leafValues>
            -4.8387250304222107e-01 4.7613927721977234e-01</leafValues></_></weakClassifiers></_>
    <!-- stage 7 -->
    <_>
      <maxWeakCount>10</maxWeakCount>
      <stageThreshold>-7.0161581039428711e-01</stageThreshold>
      <weakClassifiers>
        <_>
          <internalNodes>
            0 -1 79 -9.7274016588926315e-03</internalNodes>
          <leafValues>
            3.8317757844924927e-01 -6.5688484907150269e-01</leafValues></_>
        <_>
          <internalNodes>
            0 -1 53 -1.8585191573947668e-03</internalNodes>
          <leafValues>
            -7.6036989688873291e-01 2.2614206373691559e-01</leafValues></_>
        <_>
          <internalNodes>
            0 -1 45 1.1366652324795723e-02</internalNodes>
          <leafValues>
            1.9759310781955719e-01 -9.1614943742752075e-01</leafValues></_>
        <_>
          <internalNodes>
            0 -1 6 2.0013023167848587e-03</internalNodes>
          <leafValues>
            -3.8123941421508789e-01 4.5248037576675415e-01</leafValues></_>
        <_>
          <internalNodes>
            0 -1 44 -6.1006233096122742e-02</internalNodes>
          <leafValues>
            4.0081447362899780e-01 -4.7266075015068054e-01</leafValues></_>
        <_>
          <internalNodes>
            0 -1 75 9.9396836012601852e-03</internalNodes>
          <leafValues>
            -2.7338635921478271e-01 7.2040265798568726e-01</leafValues></_>
        <_>
          <internalNodes>
            0 -1 15 7.5888806022703648e-03</internalNodes>
          <leafValues>
            -6.1997878551483154e-01 2.9897427558898926e-01</leafValues></_>
        <_>
          <internalNodes>
            0 -1 66 -1.8096794374287128e-03</internalNodes>
          <leafValues>
            -8.0898344516754150e-01 2.0765313506126404e-01</leafValues></_>
        <_>
          <internalNodes>
            0 -1 65 2.8430912643671036e-03</internalNodes>
          <leafValues>
            1.4374038577079773e-01 -9.3499296903610229e-01</leafValues></_>
        <_>
          <internalNodes>
            0 -1 12 1.4167249202728271e-02</internalNodes>
          <leafValues>
            1.6124480962753296e-01 -8.3343940973281860e-01</leafValues></_></weakClassifiers></_>
    <!-- stage 8 -->
    <_>
      <maxWeakCount>11</maxWeakCount>
      <stageThreshold>-8.6358875036239624e-01</stageThreshold>
      <weakClassifiers>
        <_>
          <internalNodes>
            0 -1 51 1.2463258579373360e-02</internalNodes>
          <leafValues>
            -6.9784170389175415e-01 3.0827066302299500e-01</leafValues></_>
        <_>
          <internalNodes>
            0 -1 22 4.5191040262579918e-03</internalNodes>
          <leafValues>
            -3.5325995087623596e-01 6.7571932077407837e-01</leafValues></_>
        <_>
          <internalNodes>
            0 -1 61 2.1711562294512987e-03</internalNodes>
          <leafValues>
            -6.6027867794036865e-01 3.1442236900329590e-01</leafValues></_>
        <_>
          <internalNodes>
            0 -1 57 2.3681600578129292e-03</internalNodes>
          <leafValues>
            2.1910969913005829e-01 -8.3331459760665894e-01</leafValues></_>
        <_>
          <internalNodes>
            0 -1 71 -7.4278179090470076e-04</internalNodes>
          <leafValues>
            -1. 1.5855216979980469e-01</leafValues></_>
        <_>
          <internalNodes>
            0 -1 23 2.3783123120665550e-02</internalNodes>
          <leafValues>
            -3.5852125287055969e-01 5.7511645555496216e-01</leafValues></_>
        <_>
          <internalNodes>
            0 -1 40 -1.9371310248970985e-02</internalNodes>
          <leafValues>
            7.3642909526824951e-01 -3.1395655870437622e-01</leafValues></_>
        <_>
          <internalNodes>
            0 -1 13 1.6820706427097321e-02</internalNodes>
          <leafValues>
            -2.1094012260437012e-01 7.8354460000991821e-01</leafValues></_>
        <_>
          <internalNodes>
            0 -1 5 -4.3699461966753006e-02</internalNodes>
          <leafValues>
            8.7307572364807129e-01 -1.9005773961544037e-01</leafValues></_>
        <_>
          <internalNodes>
            0 -1 28 -3.7586555117741227e-04</internalNodes>
          <leafValues>
            4.1022828221321106e-01 -4.8813617229461670e-01</leafValues></_>
        <_>
          <internalNodes>
            0 -1 60 5.7252273109043017e-05</internalNodes>
          <leafValues>
            -9.7024565935134888e-01 1.9973942637443542e-01</leafValues></_></weakClassifiers></_>
    <!-- stage 9 -->
    <_>
      <maxWeakCount>9</maxWeakCount>
      <stageThreshold>-1.1668362617492676e+00</stageThreshold>
      <weakClassifiers>
        <_>
          <internalNodes>
            0 -1 19 1.6451470553874969e-02</internalNodes>
          <leafValues>
            -7.0126581192016602e-01 1.7419354617595673e-01</leafValues></_>
        <_>
          <internalNodes>
            0 -1 46 -2.1441197022795677e-03</internalNodes>
          <leafValues>
            -8.7023746967315674e-01 1.3550588488578796e-01</leafValues></_>
        <_>
          <internalNodes>
            0 -1 29 -1.6322281211614609e-02</internalNodes>
          <leafValues>
            6.5041685104370117e-01 -3.0695569515228271e-01</leafValues></_>
        <_>
          <internalNodes>
            0 -1 14 3.5457476973533630e-02</internalNodes>
          <leafValues>
            2.2998803853988647e-01 -9.3052142858505249e-01</leafValues></_>
        <_>
          <internalNodes>
            0 -1 7 2.6513174176216125e-02</internalNodes>
          <leafValues>
            -4.4715005159378052e-01 4.1487014293670654e-01</leafValues></_>
        <_>
          <internalNodes>
            0 -1 33 -8.1424182280898094e-03</internalNodes>
          <leafValues>
            -6.5457266569137573e-01 2.3103147745132446e-01</leafValues></_>
        <_>
          <internalNodes>
            0 -1 72 3.8739271985832602e-05</internalNodes>
          <leafValues>
            -4.2951157689094543e-01 4.0692761540412903e-01</leafValues></_>
        <_>
          <internalNodes>
            0 -1 58 2.7321180095896125e-04</internalNodes>
          <leafValues>
            2.1396116912364960e-01 -8.4971851110458374e-01</leafValues></_>
        <_>
          <internalNodes>
            0 -1 4 -1.1428265273571014e-01</internalNodes>
          <leafValues>
            7.9316443204879761e-01 -2.2115136682987213e-01</leafValues></_></weakClassifiers></_></stages>
  <features>
    <_>
      <rects>
        <_>
          0 2 24 14 -1.</_>
        <_>
          0 2 12 7 2.</_>
        <_>
          12 9 12 7 2.</_></rects>
      <tilted>0</tilted></_>
    <_>
      <rects>
        <_>
          0 3 10 4 -1.</_>
        <_>
          0 3 5 2 2.</_>
        <_>
          5 5 5 2 2.</_></rects>
      <tilted>0</tilted></_>
    <_>
      <rects>
        <_>
          0 3 11 6 -1.</_>
        <_>
          0 6 11 3 2.</_></rects>
      <tilted>0</tilted></_>
    <_>
      <rects>
        <_>
          0 3 20 4 -1.</_>
        <_>
          0 5 20 2 2.</_></rects>
      <tilted>0</tilted></_>
    <_>
      <rects>
        <_>
          0 12 16 10 -1.</_>
        <_>
          8 12 8 10 2.</_></rects>
      <tilted>0</tilted></_>
    <_>
      <rects>
        <_>
          1 2 22 4 -1.</_>
        <_>
          1 4 22 2 2.</_></rects>
      <tilted>0</tilted></_>
    <_>
      <rects>
        <_>
          1 4 5 2 -1.</_>
        <_>
          1 5 5 1 2.</_></rects>
      <tilted>0</tilted></_>
    <_>
      <rects>
        <_>
          1 4 16 5 -1.</_>
        <_>
          9 4 8 5 2.</_></rects>
      <tilted>0</tilted></_>
    <_>
      <rects>
        <_>
          2 1 19 4 -1.</_>
        <_>
          2 3 19 2 2.</_></rects>
      <tilted>0</tilted></_>
    <_>
      <rects>
        <_>
          2 3 20 6 -1.</_>
        <_>
          2 6 20 3 2.</_></rects>
      <tilted>0</tilted></_>
    <_>
      <rects>
        <_>
          2 4 2 5 -1.</_>
        <_>
          3 4 1 5 2.</_></rects>
      <tilted>0</tilted></_>
    <_>
      <rects>
        <_>
          2 4 22 10 -1.</_>
        <_>
          2 4 11 5 2.</_>
        <_>
          13 9 11 5 2.</_></rects>
      <tilted>0</tilted></_>
    <_>
      <rects>
        <_>
          2 15 20 1 -1.</_>
        <_>
          12 15 10 1 2.</_></rects>
      <tilted>0</tilted></_>
    <_>
      <rects>
        <_>
          2 16 12 1 -1.</_>
        <_>
          8 16 6 1 2.</_></rects>
      <tilted>0</tilted></_>
    <_>
      <rects>
        <_>
          3 3 18 5 -1.</_>
        <_>
          12 3 9 5 2.</_></rects>
      <tilted>0</tilted></_>
    <_>
      <rects>
        <_>
          3 4 10 6 -1.</_>
        <_>
          8 4 5 6 2.</_></rects>
      <tilted>0</tilted></_>
    <_>
      <rects>
        <_>
          3 5 4 5 -1.</_>
        <_>
          5 5 2 5 2.</_></rects>
      <tilted>0</tilted></_>
    <_>
      <rects>
        <_>
          3 5 18 10 -1.</_>
        <_>
          3 5 9 5 2.</_>
        <_>
          12 10 9 5 2.</_></rects>
      <tilted>0</tilted></_>
    <_>
      <rects>
        <_>
          3 6 4 4 -1.</_>
        <_>
          3 6 2 2 2.</_>
        <_>
          5 8 2 2 2.</_></rects>
      <tilted>0</tilted></_>
    <_>
      <rects>
        <_>
          3 6 4 4 -1.</_>
        <_>
          5 6 2 4 2.</_></rects>
      <tilted>0</tilted></_>
    <_>
      <rects>
        <_>
          3 8 18 6 -1.</_>
        <_>
          3 8 9 3 2.</_>
        <_>
          12 11 9 3 2.</_></rects>
      <tilted>0</tilted></_>
    <_>
      <rects>
        <_>
          3 9 18 2 -1.</_>
        <_>
          3 9 9 1 2.</_>
        <_>
          12 10 9 1 2.</_></rects>
      <tilted>0</tilted></_>
    <_>
      <rects>
        <_>
          4 3 4 2 -1.</_>
        <_>
          4 4 4 1 2.</_></rects>
      <tilted>0</tilted></_>
    <_>
      <rects>
        <_>
          4 4 6 10 -1.</_>
        <_>
          4 4 3 5 2.</_>
        <_>
          7 9 3 5 2.</_></rects>
      <tilted>0</tilted></_>
    <_>
      <rects>
        <_>
          4 6 6 14 -1.</_>
        <_>
          4 6 3 7 2.</_>
        <_>
          7 13 3 7 2.</_></rects>
      <tilted>0</tilted></_>
    <_>
      <rects>
        <_>
          4 7 6 10 -1.</_>
        <_>
          4 7 3 5 2.</_>
        <_>
          7 12 3 5 2.</_></rects>
      <tilted>0</tilted></_>
    <_>
      <rects>
        <_>
          4 8 6 14 -1.</_>
        <_>
          4 8 3 7 2.</_>
        <_>
          7 15 3 7 2.</_></rects>
      <tilted>0</tilted></_>
    <_>
      <rects>
        <_>
          4 9 6 7 -1.</_>
        <_>
          7 9 3 7 2.</_></rects>
      <tilted>0</tilted></_>
    <_>
      <rects>
        <_>
          5 6 7 4 -1.</_>
        <_>
          5 8 7 2 2.</_></rects>
      <tilted>0</tilted></_>
    <_>
      <rects>
        <_>
          5 9 4 6 -1.</_>
        <_>
          5 9 2 3 2.</_>
        <_>
          7 12 2 3 2.</_></rects>
      <tilted>0</tilted></_>
    <_>
      <rects>
        <_>
          5 12 15 1 -1.</_>
        <_>
          10 12 5 1 2.</_></rects>
      <tilted>0</tilted></_>
    <_>
      <rects>
        <_>
          6 0 6 14 -1.</_>
        <_>
          6 0 3 7 2.</_>
        <_>
          9 7 3 7 2.</_></rects>
      <tilted>0</tilted></_>
    <_>
      <rects>
        <_>
          6 10 4 8 -1.</_>
        <_>
          6 10 2 4 2.</_>
        <_>
          8 14 2 4 2.</_></rects>
      <tilted>0</tilted></_>
    <_>
      <rects>
        <_>
          6 13 14 8 -1.</_>
        <_>
          6 13 7 4 2.</_>
        <_>
          13 17 7 4 2.</_></rects>
      <tilted>0</tilted></_>
    <_>
      <rects>
        <_>
          7 1 2 15 -1.</_>
        <_>
          7 6 2 5 2.</_></rects>
      <tilted>0</tilted></_>
    <_>
      <rects>
        <_>
          7 3 6 5 -1.</_>
        <_>
          10 3 3 5 2.</_></rects>
      <tilted>0</tilted></_>
    <_>
      <rects>
        <_>
          7 3 11 4 -1.</_>
        <_>
          7 5 11 2 2.</_></rects>
      <tilted>0</tilted></_>
    <_>
      <rects>
        <_>
          7 6 4 12 -1.</_>
        <_>
          7 6 2 6 2.</_>
        <_>
          9 12 2 6 2.</_></rects>
      <tilted>0</tilted></_>
    <_>
      <rects>
        <_>
          7 7 11 6 -1.</_>
        <_>
          7 10 11 3 2.</_></rects>
      <tilted>0</tilted></_>
    <_>
      <rects>
        <_>
          7 7 11 12 -1.</_>
        <_>
          7 13 11 6 2.</_></rects>
      <tilted>0</tilted></_>
    <_>
      <rects>
        <_>
          7 10 4 10 -1.</_>
        <_>
          7 10 2 5 2.</_>
        <_>
          9 15 2 5 2.</_></rects>
      <tilted>0</tilted></_>
    <_>
      <rects>
        <_>
          8 4 2 4 -1.</_>
        <_>
          8 4 1 2 2.</_>
        <_>
          9 6 1 2 2.</_></rects>
      <tilted>0</tilted></_>
    <_>
      <rects>
        <_>
          8 6 8 2 -1.</_>
        <_>
          12 6 4 2 2.</_></rects>
      <tilted>0</tilted></_>
    <_>
      <rects>
        <_>
          8 14 9 4 -1.</_>
        <_>
          11 14 3 4 2.</_></rects>
      <tilted>0</tilted></_>
    <_>
      <rects>
        <_>
          9 0 12 18 -1.</_>
        <_>
          9 0 6 9 2.</_>
        <_>
          15 9 6 9 2.</_></rects>
      <tilted>0</tilted></_>
    <_>
      <rects>
        <_>
          9 3 10 3 -1.</_>
        <_>
          14 3 5 3 2.</_></rects>
      <tilted>0</tilted></_>
    <_>
      <rects>
        <_>
          9 7 8 1 -1.</_>
        <_>
          13 7 4 1 2.</_></rects>
      <tilted>0</tilted></_>
    <_>
      <rects>
        <_>
          9 8 2 14 -1.</_>
        <_>
          10 8 1 14 2.</_></rects>
      <tilted>0</tilted></_>
    <_>
      <rects>
        <_>
          9 9 4 4 -1.</_>
        <_>
          9 9 2 2 2.</_>
        <_>
          11 11 2 2 2.</_></rects>
      <tilted>0</tilted></_>
    <_>
      <rects>
        <_>
          9 11 2 1 -1.</_>
        <_>
          10 11 1 1 2.</_></rects>
      <tilted>0</tilted></_>
    <_>
      <rects>
        <_>
          9 15 7 2 -1.</_>
        <_>
          9 16 7 1 2.</_></rects>
      <tilted>0</tilted></_>
    <_>
      <rects>
        <_>
          9 17 4 3 -1.</_>
        <_>
          11 17 2 3 2.</_></rects>
      <tilted>0</tilted></_>
    <_>
      <rects>
        <_>
          10 0 14 12 -1.</_>
        <_>
          10 0 7 6 2.</_>
        <_>
          17 6 7 6 2.</_></rects>
      <tilted>0</tilted></_>
    <_>
      <rects>
        <_>
          10 3 4 7 -1.</_>
        <_>
          12 3 2 7 2.</_></rects>
      <tilted>0</tilted></_>
    <_>
      <rects>
        <_>
          10 12 5 12 -1.</_>
        <_>
          10 18 5 6 2.</_></rects>
      <tilted>0</tilted></_>
    <_>
      <rects>
        <_>
          11 2 3 16 -1.</_>
        <_>
          11 10 3 8 2.</_></rects>
      <tilted>0</tilted></_>
    <_>
      <rects>
        <_>
          11 6 2 4 -1.</_>
        <_>
          11 6 1 2 2.</_>
        <_>
          12 8 1 2 2.</_></rects>
      <tilted>0</tilted></_>
    <_>
      <rects>
        <_>
          11 8 3 6 -1.</_>
        <_>
          11 11 3 3 2.</_></rects>
      <tilted>0</tilted></_>
    <_>
      <rects>
        <_>
          11 11 1 2 -1.</_>
        <_>
          11 12 1 1 2.</_></rects>
      <tilted>0</tilted></_>
    <_>
      <rects>
        <_>
          12 0 6 18 -1.</_>
        <_>
          12 6 6 6 2.</_></rects>
      <tilted>0</tilted></_>
    <_>
      <rects>
        <_>
          12 2 4 12 -1.</_>
        <_>
          12 8 4 6 2.</_></rects>
      <tilted>0</tilted></_>
    <_>
      <rects>
        <_>
          12 3 2 16 -1.</_>
        <_>
          12 11 2 8 2.</_></rects>
      <tilted>0</tilted></_>
    <_>
      <rects>
        <_>
          12 7 8 11 -1.</_>
        <_>
          16 7 4 11 2.</_></rects>
      <tilted>0</tilted></_>
    <_>
      <rects>
        <_>
          12 16 4 8 -1.</_>
        <_>
          12 16 2 4 2.</_>
        <_>
          14 20 2 4 2.</_></rects>
      <tilted>0</tilted></_>
    <_>
      <rects>
        <_>
          13 3 2 5 -1.</_>
        <_>
          14 3 1 5 2.</_></rects>
      <tilted>0</tilted></_>
    <_>
      <rects>
        <_>
          13 5 4 3 -1.</_>
        <_>
          15 5 2 3 2.</_></rects>
      <tilted>0</tilted></_>
    <_>
      <rects>
        <_>
          13 5 6 1 -1.</_>
        <_>
          16 5 3 1 2.</_></rects>
      <tilted>0</tilted></_>
    <_>
      <rects>
        <_>
          13 8 10 16 -1.</_>
        <_>
          13 8 5 8 2.</_>
        <_>
          18 16 5 8 2.</_></rects>
      <tilted>0</tilted></_>
    <_>
      <rects>
        <_>
          13 9 4 10 -1.</_>
        <_>
          13 9 2 5 2.</_>
        <_>
          15 14 2 5 2.</_></rects>
      <tilted>0</tilted></_>
    <_>
      <rects>
        <_>
          13 12 2 8 -1.</_>
        <_>
          13 12 1 4 2.</_>
        <_>
          14 16 1 4 2.</_></rects>
      <tilted>0</tilted></_>
    <_>
      <rects>
        <_>
          14 0 1 21 -1.</_>
        <_>
          14 7 1 7 2.</_></rects>
      <tilted>0</tilted></_>
    <_>
      <rects>
        <_>
          14 5 2 2 -1.</_>
        <_>
          15 5 1 2 2.</_></rects>
      <tilted>0</tilted></_>
    <_>
      <rects>
        <_>
          14 9 2 3 -1.</_>
        <_>
          15 9 1 3 2.</_></rects>
      <tilted>0</tilted></_>
    <_>
      <rects>
        <_>
          15 7 8 4 -1.</_>
        <_>
          19 7 4 4 2.</_></rects>
      <tilted>0</tilted></_>
    <_>
      <rects>
        <_>
          15 11 2 10 -1.</_>
        <_>
          15 11 1 5 2.</_>
        <_>
          16 16 1 5 2.</_></rects>
      <tilted>0</tilted></_>
    <_>
      <rects>
        <_>
          15 13 4 4 -1.</_>
        <_>
          17 13 2 4 2.</_></rects>
      <tilted>0</tilted></_>
    <_>
      <rects>
        <_>
          16 6 4 10 -1.</_>
        <_>
          16 6 2 5 2.</_>
        <_>
          18 11 2 5 2.</_></rects>
      <tilted>0</tilted></_>
    <_>
      <rects>
        <_>
          16 10 6 10 -1.</_>
        <_>
          16 10 3 5 2.</_>
        <_>
          19 15 3 5 2.</_></rects>
      <tilted>0</tilted></_>
    <_>
      <rects>
        <_>
          17 5 2 9 -1.</_>
        <_>
          18 5 1 9 2.</_></rects>
      <tilted>0</tilted></_>
    <_>
      <rects>
        <_>
          18 6 1 8 -1.</_>
        <_>
          18 10 1 4 2.</_></rects>
      <tilted>0</tilted></_>
    <_>
      <rects>
        <_>
          18 6 4 12 -1.</_>
        <_>
          18 6 2 6 2.</_>
        <_>
          20 12 2 6 2.</_></rects>
      <tilted>0</tilted></_></features></cascade>
</opencv_storage>
