<?xml version="1.0"?>
<opencv_storage>
<cascade>
  <stageType>BOOST</stageType>
  <featureType>HAAR</featureType>
  <height>24</height>
  <width>24</width>
  <stageParams>
    <boostType>GAB</boostType>
    <minHitRate>9.9900001287460327e-01</minHitRate>
    <maxFalseAlarm>2.0000000298023224e-01</maxFalseAlarm>
    <weightTrimRate>9.4999999999999996e-01</weightTrimRate>
    <maxDepth>1</maxDepth>
    <maxWeakCount>100</maxWeakCount></stageParams>
  <featureParams>
    <maxCatCount>0</maxCatCount>
    <featSize>1</featSize>
    <mode>BASIC</mode></featureParams>
  <stageNum>9</stageNum>
  <stages>
    <!-- stage 0 -->
    <_>
      <maxWeakCount>2</maxWeakCount>
      <stageThreshold>-1.6144059598445892e-01</stageThreshold>
      <weakClassifiers>
        <_>
          <internalNodes>
            0 -1 24 1.8999828025698662e-02</internalNodes>
          <leafValues>
            -9.2982459068298340e-01 8.0132448673248291e-01</leafValues></_>
        <_>
          <internalNodes>
            0 -1 0 -3.0344037339091301e-02</internalNodes>
          <leafValues>
            7.6838397979736328e-01 -9.2059445381164551e-01</leafValues></_></weakClassifiers></_>
    <!-- stage 1 -->
    <_>
      <maxWeakCount>4</maxWeakCount>
      <stageThreshold>-3.9173716306686401e-01</stageThreshold>
      <weakClassifiers>
        <_>
          <internalNodes>
            0 -1 19 -2.6806389912962914e-02</internalNodes>
          <leafValues>
            8.1954884529113770e-01 -8.6091125011444092e-01</leafValues></_>
        <_>
          <internalNodes>
            0 -1 38 2.9640933498740196e-02</internalNodes>
          <leafValues>
            -7.6238059997558594e-01 9.0827256441116333e-01</leafValues></_>
        <_>
          <internalNodes>
            0 -1 29 9.2522352933883667e-03</internalNodes>
          <leafValues>
            -9.9545979499816895e-01 6.3781726360321045e-01</leafValues></_>
        <_>
          <internalNodes>
            0 -1 33 9.2987567186355591e-03</internalNodes>
          <leafValues>
            -9.4707310199737549e-01 5.9373742341995239e-01</leafValues></_></weakClassifiers></_>
    <!-- stage 2 -->
    <_>
      <maxWeakCount>4</maxWeakCount>
      <stageThreshold>-3.0604937672615051e-01</stageThreshold>
      <weakClassifiers>
        <_>
          <internalNodes>
            0 -1 12 -6.1258353292942047e-02</internalNodes>
          <leafValues>
            -9.0839695930480957e-01 6.8152868747711182e-01</leafValues></_>
        <_>
          <internalNodes>
            0 -1 18 -1.7585363239049911e-02</internalNodes>
          <leafValues>
            8.3130782842636108e-01 -7.1117746829986572e-01</leafValues></_>
        <_>
          <internalNodes>
            0 -1 8 2.3470874875783920e-02</internalNodes>
          <leafValues>
            -9.9458658695220947e-01 5.3510016202926636e-01</leafValues></_>
        <_>
          <internalNodes>
            0 -1 2 -3.3141501247882843e-02</internalNodes>
          <leafValues>
            7.7842485904693604e-01 -6.7785841226577759e-01</leafValues></_></weakClassifiers></_>
    <!-- stage 3 -->
    <_>
      <maxWeakCount>4</maxWeakCount>
      <stageThreshold>-3.8577124476432800e-01</stageThreshold>
      <weakClassifiers>
        <_>
          <internalNodes>
            0 -1 25 -1.2376275844871998e-02</internalNodes>
          <leafValues>
            7.5438594818115234e-01 -7.7064222097396851e-01</leafValues></_>
        <_>
          <internalNodes>
            0 -1 13 1.6779778525233269e-03</internalNodes>
          <leafValues>
            -9.1827595233917236e-01 4.8310825228691101e-01</leafValues></_>
        <_>
          <internalNodes>
            0 -1 15 1.8553249537944794e-02</internalNodes>
          <leafValues>
            -7.6397961378097534e-01 6.5557402372360229e-01</leafValues></_>
        <_>
          <internalNodes>
            0 -1 21 4.6104565262794495e-02</internalNodes>
          <leafValues>
            -6.7678087949752808e-01 6.6574233770370483e-01</leafValues></_></weakClassifiers></_>
    <!-- stage 4 -->
    <_>
      <maxWeakCount>6</maxWeakCount>
      <stageThreshold>-5.8294683694839478e-01</stageThreshold>
      <weakClassifiers>
        <_>
          <internalNodes>
            0 -1 1 -1.8125548958778381e-02</internalNodes>
          <leafValues>
            8.3333331346511841e-01 -7.2687226533889771e-01</leafValues></_>
        <_>
          <internalNodes>
            0 -1 36 -1.6623814590275288e-03</internalNodes>
          <leafValues>
            4.4595599174499512e-01 -8.5833370685577393e-01</leafValues></_>
        <_>
          <internalNodes>
            0 -1 20 -4.3166095565538853e-05</internalNodes>
          <leafValues>
            3.9453333616256714e-01 -9.2066264152526855e-01</leafValues></_>
        <_>
          <internalNodes>
            0 -1 3 -4.9586798995733261e-02</internalNodes>
          <leafValues>
            7.7575421333312988e-01 -5.5164712667465210e-01</leafValues></_>
        <_>
          <internalNodes>
            0 -1 27 -2.3760125041007996e-03</internalNodes>
          <leafValues>
            4.8444521427154541e-01 -9.9611854553222656e-01</leafValues></_>
        <_>
          <internalNodes>
            0 -1 39 3.0460964888334274e-02</internalNodes>
          <leafValues>
            -6.2936198711395264e-01 7.3911947011947632e-01</leafValues></_></weakClassifiers></_>
    <!-- stage 5 -->
    <_>
      <maxWeakCount>5</maxWeakCount>
      <stageThreshold>-6.6433519124984741e-01</stageThreshold>
      <weakClassifiers>
        <_>
          <internalNodes>
            0 -1 37 -4.1959553956985474e-02</internalNodes>
          <leafValues>
            -9.5876288414001465e-01 1.1196911334991455e-01</leafValues></_>
        <_>
          <internalNodes>
            0 -1 26 -6.1803744174540043e-03</internalNodes>
          <leafValues>
            7.0893204212188721e-01 -5.7881909608840942e-01</leafValues></_>
        <_>
          <internalNodes>
            0 -1 7 6.0197920538485050e-03</internalNodes>
          <leafValues>
            -9.8959946632385254e-01 3.5409665107727051e-01</leafValues></_>
        <_>
          <internalNodes>
            0 -1 17 1.2893707025796175e-03</internalNodes>
          <leafValues>
            -8.5643684864044189e-01 3.6579588055610657e-01</leafValues></_>
        <_>
          <internalNodes>
            0 -1 22 -4.4212501496076584e-02</internalNodes>
          <leafValues>
            -1. 3.0485498905181885e-01</leafValues></_></weakClassifiers></_>
    <!-- stage 6 -->
    <_>
      <maxWeakCount>4</maxWeakCount>
      <stageThreshold>-3.2035315036773682e-01</stageThreshold>
      <weakClassifiers>
        <_>
          <internalNodes>
            0 -1 6 -2.5616806000471115e-02</internalNodes>
          <leafValues>
            7.9310345649719238e-01 -6.8898487091064453e-01</leafValues></_>
        <_>
          <internalNodes>
            0 -1 28 4.7499523498117924e-03</internalNodes>
          <leafValues>
            -5.6627595424652100e-01 6.5169572830200195e-01</leafValues></_>
        <_>
          <internalNodes>
            0 -1 34 1.1938995448872447e-03</internalNodes>
          <leafValues>
            -6.9350874423980713e-01 6.5029036998748779e-01</leafValues></_>
        <_>
          <internalNodes>
            0 -1 9 -1.1499663814902306e-02</internalNodes>
          <leafValues>
            -9.8591160774230957e-01 4.1044479608535767e-01</leafValues></_></weakClassifiers></_>
    <!-- stage 7 -->
    <_>
      <maxWeakCount>5</maxWeakCount>
      <stageThreshold>-6.4449661970138550e-01</stageThreshold>
      <weakClassifiers>
        <_>
          <internalNodes>
            0 -1 23 1.2328010052442551e-02</internalNodes>
          <leafValues>
            -6.9298243522644043e-01 7.0212763547897339e-01</leafValues></_>
        <_>
          <internalNodes>
            0 -1 11 1.2624055147171021e-02</internalNodes>
          <leafValues>
            3.8041454553604126e-01 -8.8343185186386108e-01</leafValues></_>
        <_>
          <internalNodes>
            0 -1 5 -3.2532918266952038e-03</internalNodes>
          <leafValues>
            3.2844877243041992e-01 -9.3628197908401489e-01</leafValues></_>
        <_>
          <internalNodes>
            0 -1 30 -3.9314860478043556e-03</internalNodes>
          <leafValues>
            -9.7792518138885498e-01 2.8861668705940247e-01</leafValues></_>
        <_>
          <internalNodes>
            0 -1 10 7.9760421067476273e-04</internalNodes>
          <leafValues>
            3.1573659181594849e-01 -8.8491582870483398e-01</leafValues></_></weakClassifiers></_>
    <!-- stage 8 -->
    <_>
      <maxWeakCount>6</maxWeakCount>
      <stageThreshold>-1.0686630010604858e+00</stageThreshold>
      <weakClassifiers>
        <_>
          <internalNodes>
            0 -1 32 5.6334529072046280e-03</internalNodes>
          <leafValues>
            -7.2272729873657227e-01 6.1818182468414307e-01</leafValues></_>
        <_>
          <internalNodes>
            0 -1 4 -6.9141879677772522e-02</internalNodes>
          <leafValues>
            7.9842048883438110e-01 -5.2668201923370361e-01</leafValues></_>
        <_>
          <internalNodes>
            0 -1 35 -3.9402092806994915e-03</internalNodes>
          <leafValues>
            4.1799628734588623e-01 -9.7987282276153564e-01</leafValues></_>
        <_>
          <internalNodes>
            0 -1 16 1.8920663278549910e-03</internalNodes>
          <leafValues>
            -8.5669803619384766e-01 3.3275738358497620e-01</leafValues></_>
        <_>
          <internalNodes>
            0 -1 31 1.3806087663397193e-03</internalNodes>
          <leafValues>
            -9.1592758893966675e-01 3.0339494347572327e-01</leafValues></_>
        <_>
          <internalNodes>
            0 -1 14 -4.3297363445162773e-03</internalNodes>
          <leafValues>
            -8.7340229749679565e-01 3.1999033689498901e-01</leafValues></_></weakClassifiers></_></stages>
  <features>
    <_>
      <rects>
        <_>
          1 4 6 7 -1.</_>
        <_>
          4 4 3 7 2.</_></rects>
      <tilted>0</tilted></_>
    <_>
      <rects>
        <_>
          2 2 2 12 -1.</_>
        <_>
          3 2 1 12 2.</_></rects>
      <tilted>0</tilted></_>
    <_>
      <rects>
        <_>
          2 2 17 4 -1.</_>
        <_>
          2 4 17 2 2.</_></rects>
      <tilted>0</tilted></_>
    <_>
      <rects>
        <_>
          2 4 4 13 -1.</_>
        <_>
          4 4 2 13 2.</_></rects>
      <tilted>0</tilted></_>
    <_>
      <rects>
        <_>
          2 4 4 17 -1.</_>
        <_>
          4 4 2 17 2.</_></rects>
      <tilted>0</tilted></_>
    <_>
      <rects>
        <_>
          2 18 18 3 -1.</_>
        <_>
          11 18 9 3 2.</_></rects>
      <tilted>0</tilted></_>
    <_>
      <rects>
        <_>
          3 2 20 2 -1.</_>
        <_>
          3 3 20 1 2.</_></rects>
      <tilted>0</tilted></_>
    <_>
      <rects>
        <_>
          3 10 12 4 -1.</_>
        <_>
          3 12 12 2 2.</_></rects>
      <tilted>0</tilted></_>
    <_>
      <rects>
        <_>
          4 5 5 14 -1.</_>
        <_>
          4 12 5 7 2.</_></rects>
      <tilted>0</tilted></_>
    <_>
      <rects>
        <_>
          4 8 16 8 -1.</_>
        <_>
          4 8 8 4 2.</_>
        <_>
          12 12 8 4 2.</_></rects>
      <tilted>0</tilted></_>
    <_>
      <rects>
        <_>
          4 11 18 4 -1.</_>
        <_>
          4 11 9 2 2.</_>
        <_>
          13 13 9 2 2.</_></rects>
      <tilted>0</tilted></_>
    <_>
      <rects>
        <_>
          5 6 14 10 -1.</_>
        <_>
          5 6 7 5 2.</_>
        <_>
          12 11 7 5 2.</_></rects>
      <tilted>0</tilted></_>
    <_>
      <rects>
        <_>
          5 9 9 4 -1.</_>
        <_>
          8 9 3 4 2.</_></rects>
      <tilted>0</tilted></_>
    <_>
      <rects>
        <_>
          6 11 2 5 -1.</_>
        <_>
          7 11 1 5 2.</_></rects>
      <tilted>0</tilted></_>
    <_>
      <rects>
        <_>
          6 11 10 10 -1.</_>
        <_>
          6 11 5 5 2.</_>
        <_>
          11 16 5 5 2.</_></rects>
      <tilted>0</tilted></_>
    <_>
      <rects>
        <_>
          6 19 15 4 -1.</_>
        <_>
          6 21 15 2 2.</_></rects>
      <tilted>0</tilted></_>
    <_>
      <rects>
        <_>
          7 7 4 2 -1.</_>
        <_>
          9 7 2 2 2.</_></rects>
      <tilted>0</tilted></_>
    <_>
      <rects>
        <_>
          8 5 3 4 -1.</_>
        <_>
          8 7 3 2 2.</_></rects>
      <tilted>0</tilted></_>
    <_>
      <rects>
        <_>
          8 17 9 4 -1.</_>
        <_>
          8 19 9 2 2.</_></rects>
      <tilted>0</tilted></_>
    <_>
      <rects>
        <_>
          9 3 4 10 -1.</_>
        <_>
          9 3 2 5 2.</_>
        <_>
          11 8 2 5 2.</_></rects>
      <tilted>0</tilted></_>
    <_>
      <rects>
        <_>
          9 10 2 8 -1.</_>
        <_>
          9 14 2 4 2.</_></rects>
      <tilted>0</tilted></_>
    <_>
      <rects>
        <_>
          11 4 6 10 -1.</_>
        <_>
          11 4 3 5 2.</_>
        <_>
          14 9 3 5 2.</_></rects>
      <tilted>0</tilted></_>
    <_>
      <rects>
        <_>
          11 9 2 6 -1.</_>
        <_>
          11 11 2 2 2.</_></rects>
      <tilted>0</tilted></_>
    <_>
      <rects>
        <_>
          12 3 2 8 -1.</_>
        <_>
          12 3 1 4 2.</_>
        <_>
          13 7 1 4 2.</_></rects>
      <tilted>0</tilted></_>
    <_>
      <rects>
        <_>
          12 4 4 10 -1.</_>
        <_>
          12 4 2 5 2.</_>
        <_>
          14 9 2 5 2.</_></rects>
      <tilted>0</tilted></_>
    <_>
      <rects>
        <_>
          12 7 2 12 -1.</_>
        <_>
          12 7 1 6 2.</_>
        <_>
          13 13 1 6 2.</_></rects>
      <tilted>0</tilted></_>
    <_>
      <rects>
        <_>
          12 11 2 4 -1.</_>
        <_>
          12 11 1 2 2.</_>
        <_>
          13 13 1 2 2.</_></rects>
      <tilted>0</tilted></_>
    <_>
      <rects>
        <_>
          12 14 6 6 -1.</_>
        <_>
          12 14 3 3 2.</_>
        <_>
          15 17 3 3 2.</_></rects>
      <tilted>0</tilted></_>
    <_>
      <rects>
        <_>
          13 6 2 4 -1.</_>
        <_>
          13 6 1 2 2.</_>
        <_>
          14 8 1 2 2.</_></rects>
      <tilted>0</tilted></_>
    <_>
      <rects>
        <_>
          13 8 6 6 -1.</_>
        <_>
          13 11 6 3 2.</_></rects>
      <tilted>0</tilted></_>
    <_>
      <rects>
        <_>
          13 18 6 4 -1.</_>
        <_>
          16 18 3 4 2.</_></rects>
      <tilted>0</tilted></_>
    <_>
      <rects>
        <_>
          14 6 5 4 -1.</_>
        <_>
          14 8 5 2 2.</_></rects>
      <tilted>0</tilted></_>
    <_>
      <rects>
        <_>
          14 7 2 4 -1.</_>
        <_>
          14 7 1 2 2.</_>
        <_>
          15 9 1 2 2.</_></rects>
      <tilted>0</tilted></_>
    <_>
      <rects>
        <_>
          14 10 6 8 -1.</_>
        <_>
          14 10 3 4 2.</_>
        <_>
          17 14 3 4 2.</_></rects>
      <tilted>0</tilted></_>
    <_>
      <rects>
        <_>
          14 16 3 2 -1.</_>
        <_>
          14 17 3 1 2.</_></rects>
      <tilted>0</tilted></_>
    <_>
      <rects>
        <_>
          15 5 4 16 -1.</_>
        <_>
          17 5 2 16 2.</_></rects>
      <tilted>0</tilted></_>
    <_>
      <rects>
        <_>
          15 6 2 5 -1.</_>
        <_>
          16 6 1 5 2.</_></rects>
      <tilted>0</tilted></_>
    <_>
      <rects>
        <_>
          18 6 1 18 -1.</_>
        <_>
          18 12 1 6 2.</_></rects>
      <tilted>0</tilted></_>
    <_>
      <rects>
        <_>
          19 4 4 10 -1.</_>
        <_>
          21 4 2 10 2.</_></rects>
      <tilted>0</tilted></_>
    <_>
      <rects>
        <_>
          19 5 4 9 -1.</_>
        <_>
          21 5 2 9 2.</_></rects>
      <tilted>0</tilted></_></features></cascade>
</opencv_storage>
